digraph Tree {
node [shape=box] ;
0 [label="age <= 0.5\ngini = 0.483\nsamples = 836\nvalue = [495, 341]"] ;
1 [label="sex <= 13.5\ngini = 0.316\nsamples = 523\nvalue = [420, 103]"] ;
0 -> 1 [labeldistance=2.5, labelangle=45, headlabel="True"] ;
2 [label="sex <= 3.5\ngini = 0.493\nsamples = 43\nvalue = [19, 24]"] ;
1 -> 2 ;
3 [label="sex <= 2.5\ngini = 0.415\nsamples = 17\nvalue = [5, 12]"] ;
2 -> 3 ;
4 [label="sex <= 0.96\ngini = 0.459\nsamples = 14\nvalue = [5, 9]"] ;
3 -> 4 ;
5 [label="sex <= 0.79\ngini = 0.278\nsamples = 6\nvalue = [1, 5]"] ;
4 -> 5 ;
6 [label="sex <= 0.585\ngini = 0.5\nsamples = 2\nvalue = [1, 1]"] ;
5 -> 6 ;
7 [label="gini = 0.0\nsamples = 1\nvalue = [0, 1]"] ;
6 -> 7 ;
8 [label="gini = 0.0\nsamples = 1\nvalue = [1, 0]"] ;
6 -> 8 ;
9 [label="gini = 0.0\nsamples = 4\nvalue = [0, 4]"] ;
5 -> 9 ;
10 [label="sex <= 1.5\ngini = 0.5\nsamples = 8\nvalue = [4, 4]"] ;
4 -> 10 ;
11 [label="gini = 0.5\nsamples = 4\nvalue = [2, 2]"] ;
10 -> 11 ;
12 [label="gini = 0.5\nsamples = 4\nvalue = [2, 2]"] ;
10 -> 12 ;
13 [label="gini = 0.0\nsamples = 3\nvalue = [0, 3]"] ;
3 -> 13 ;
14 [label="sex <= 7.5\ngini = 0.497\nsamples = 26\nvalue = [14, 12]"] ;
2 -> 14 ;
15 [label="sex <= 4.5\ngini = 0.444\nsamples = 12\nvalue = [8, 4]"] ;
14 -> 15 ;
16 [label="gini = 0.48\nsamples = 5\nvalue = [3, 2]"] ;
15 -> 16 ;
17 [label="sex <= 5.5\ngini = 0.408\nsamples = 7\nvalue = [5, 2]"] ;
15 -> 17 ;
18 [label="gini = 0.0\nsamples = 1\nvalue = [1, 0]"] ;
17 -> 18 ;
19 [label="sex <= 6.5\ngini = 0.444\nsamples = 6\nvalue = [4, 2]"] ;
17 -> 19 ;
20 [label="gini = 0.444\nsamples = 3\nvalue = [2, 1]"] ;
19 -> 20 ;
21 [label="gini = 0.444\nsamples = 3\nvalue = [2, 1]"] ;
19 -> 21 ;
22 [label="sex <= 9.5\ngini = 0.49\nsamples = 14\nvalue = [6, 8]"] ;
14 -> 22 ;
23 [label="sex <= 8.5\ngini = 0.469\nsamples = 8\nvalue = [3, 5]"] ;
22 -> 23 ;
24 [label="gini = 0.444\nsamples = 3\nvalue = [1, 2]"] ;
23 -> 24 ;
25 [label="gini = 0.48\nsamples = 5\nvalue = [2, 3]"] ;
23 -> 25 ;
26 [label="sex <= 10.5\ngini = 0.5\nsamples = 6\nvalue = [3, 3]"] ;
22 -> 26 ;
27 [label="gini = 0.0\nsamples = 1\nvalue = [1, 0]"] ;
26 -> 27 ;
28 [label="sex <= 11.5\ngini = 0.48\nsamples = 5\nvalue = [2, 3]"] ;
26 -> 28 ;
29 [label="gini = 0.5\nsamples = 2\nvalue = [1, 1]"] ;
28 -> 29 ;
30 [label="sex <= 12.5\ngini = 0.444\nsamples = 3\nvalue = [1, 2]"] ;
28 -> 30 ;
31 [label="gini = 0.0\nsamples = 1\nvalue = [0, 1]"] ;
30 -> 31 ;
32 [label="gini = 0.5\nsamples = 2\nvalue = [1, 1]"] ;
30 -> 32 ;
33 [label="sex <= 77.0\ngini = 0.275\nsamples = 480\nvalue = [401, 79]"] ;
1 -> 33 ;
34 [label="sex <= 32.25\ngini = 0.273\nsamples = 479\nvalue = [401, 78]"] ;
33 -> 34 ;
35 [label="sex <= 30.75\ngini = 0.311\nsamples = 280\nvalue = [226, 54]"] ;
34 -> 35 ;
36 [label="sex <= 19.5\ngini = 0.292\nsamples = 254\nvalue = [209, 45]"] ;
35 -> 36 ;
37 [label="sex <= 14.25\ngini = 0.168\nsamples = 54\nvalue = [49, 5]"] ;
36 -> 37 ;
38 [label="gini = 0.375\nsamples = 4\nvalue = [3, 1]"] ;
37 -> 38 ;
39 [label="sex <= 18.75\ngini = 0.147\nsamples = 50\nvalue = [46, 4]"] ;
37 -> 39 ;
40 [label="sex <= 16.5\ngini = 0.108\nsamples = 35\nvalue = [33, 2]"] ;
39 -> 40 ;
41 [label="sex <= 15.5\ngini = 0.165\nsamples = 11\nvalue = [10, 1]"] ;
40 -> 41 ;
42 [label="gini = 0.0\nsamples = 2\nvalue = [2, 0]"] ;
41 -> 42 ;
43 [label="gini = 0.198\nsamples = 9\nvalue = [8, 1]"] ;
41 -> 43 ;
44 [label="sex <= 17.5\ngini = 0.08\nsamples = 24\nvalue = [23, 1]"] ;
40 -> 44 ;
45 [label="gini = 0.0\nsamples = 7\nvalue = [7, 0]"] ;
44 -> 45 ;
46 [label="sex <= 18.25\ngini = 0.111\nsamples = 17\nvalue = [16, 1]"] ;
44 -> 46 ;
47 [label="gini = 0.124\nsamples = 15\nvalue = [14, 1]"] ;
46 -> 47 ;
48 [label="gini = 0.0\nsamples = 2\nvalue = [2, 0]"] ;
46 -> 48 ;
49 [label="gini = 0.231\nsamples = 15\nvalue = [13, 2]"] ;
39 -> 49 ;
50 [label="sex <= 27.5\ngini = 0.32\nsamples = 200\nvalue = [160, 40]"] ;
36 -> 50 ;
51 [label="sex <= 24.75\ngini = 0.339\nsamples = 148\nvalue = [116, 32]"] ;
50 -> 51 ;
52 [label="sex <= 20.25\ngini = 0.304\nsamples = 91\nvalue = [74, 17]"] ;
51 -> 52 ;
53 [label="gini = 0.408\nsamples = 14\nvalue = [10, 4]"] ;
52 -> 53 ;
54 [label="sex <= 20.75\ngini = 0.281\nsamples = 77\nvalue = [64, 13]"] ;
52 -> 54 ;
55 [label="gini = 0.0\nsamples = 1\nvalue = [1, 0]"] ;
54 -> 55 ;
56 [label="sex <= 24.25\ngini = 0.284\nsamples = 76\nvalue = [63, 13]"] ;
54 -> 56 ;
57 [label="sex <= 23.75\ngini = 0.287\nsamples = 75\nvalue = [62, 13]"] ;
56 -> 57 ;
58 [label="sex <= 23.25\ngini = 0.274\nsamples = 55\nvalue = [46, 9]"] ;
57 -> 58 ;
59 [label="sex <= 22.25\ngini = 0.278\nsamples = 54\nvalue = [45, 9]"] ;
58 -> 59 ;
60 [label="sex <= 21.5\ngini = 0.283\nsamples = 41\nvalue = [34, 7]"] ;
59 -> 60 ;
61 [label="gini = 0.287\nsamples = 23\nvalue = [19, 4]"] ;
60 -> 61 ;
62 [label="gini = 0.278\nsamples = 18\nvalue = [15, 3]"] ;
60 -> 62 ;
63 [label="sex <= 22.75\ngini = 0.26\nsamples = 13\nvalue = [11, 2]"] ;
59 -> 63 ;
64 [label="gini = 0.0\nsamples = 1\nvalue = [1, 0]"] ;
63 -> 64 ;
65 [label="gini = 0.278\nsamples = 12\nvalue = [10, 2]"] ;
63 -> 65 ;
66 [label="gini = 0.0\nsamples = 1\nvalue = [1, 0]"] ;
58 -> 66 ;
67 [label="gini = 0.32\nsamples = 20\nvalue = [16, 4]"] ;
57 -> 67 ;
68 [label="gini = 0.0\nsamples = 1\nvalue = [1, 0]"] ;
56 -> 68 ;
69 [label="sex <= 26.75\ngini = 0.388\nsamples = 57\nvalue = [42, 15]"] ;
51 -> 69 ;
70 [label="sex <= 26.25\ngini = 0.369\nsamples = 41\nvalue = [31, 10]"] ;
69 -> 70 ;
71 [label="sex <= 25.5\ngini = 0.375\nsamples = 40\nvalue = [30, 10]"] ;
70 -> 71 ;
72 [label="gini = 0.397\nsamples = 22\nvalue = [16, 6]"] ;
71 -> 72 ;
73 [label="gini = 0.346\nsamples = 18\nvalue = [14, 4]"] ;
71 -> 73 ;
74 [label="gini = 0.0\nsamples = 1\nvalue = [1, 0]"] ;
70 -> 74 ;
75 [label="gini = 0.43\nsamples = 16\nvalue = [11, 5]"] ;
69 -> 75 ;
76 [label="sex <= 28.75\ngini = 0.26\nsamples = 52\nvalue = [44, 8]"] ;
50 -> 76 ;
77 [label="sex <= 28.25\ngini = 0.159\nsamples = 23\nvalue = [21, 2]"] ;
76 -> 77 ;
78 [label="gini = 0.18\nsamples = 20\nvalue = [18, 2]"] ;
77 -> 78 ;
79 [label="gini = 0.0\nsamples = 3\nvalue = [3, 0]"] ;
77 -> 79 ;
80 [label="sex <= 30.25\ngini = 0.328\nsamples = 29\nvalue = [23, 6]"] ;
76 -> 80 ;
81 [label="sex <= 29.5\ngini = 0.337\nsamples = 28\nvalue = [22, 6]"] ;
80 -> 81 ;
82 [label="gini = 0.355\nsamples = 13\nvalue = [10, 3]"] ;
81 -> 82 ;
83 [label="gini = 0.32\nsamples = 15\nvalue = [12, 3]"] ;
81 -> 83 ;
84 [label="gini = 0.0\nsamples = 1\nvalue = [1, 0]"] ;
80 -> 84 ;
85 [label="sex <= 31.5\ngini = 0.453\nsamples = 26\nvalue = [17, 9]"] ;
35 -> 85 ;
86 [label="gini = 0.42\nsamples = 10\nvalue = [7, 3]"] ;
85 -> 86 ;
87 [label="gini = 0.469\nsamples = 16\nvalue = [10, 6]"] ;
85 -> 87 ;
88 [label="sex <= 60.25\ngini = 0.212\nsamples = 199\nvalue = [175, 24]"] ;
34 -> 88 ;
89 [label="sex <= 47.5\ngini = 0.231\nsamples = 180\nvalue = [156, 24]"] ;
88 -> 89 ;
90 [label="sex <= 45.25\ngini = 0.178\nsamples = 132\nvalue = [119, 13]"] ;
89 -> 90 ;
91 [label="sex <= 44.5\ngini = 0.199\nsamples = 116\nvalue = [103, 13]"] ;
90 -> 91 ;
92 [label="sex <= 39.5\ngini = 0.18\nsamples = 110\nvalue = [99, 11]"] ;
91 -> 92 ;
93 [label="sex <= 34.75\ngini = 0.224\nsamples = 70\nvalue = [61, 9]"] ;
92 -> 93 ;
94 [label="sex <= 33.5\ngini = 0.08\nsamples = 24\nvalue = [23, 1]"] ;
93 -> 94 ;
95 [label="gini = 0.0\nsamples = 13\nvalue = [13, 0]"] ;
94 -> 95 ;
96 [label="sex <= 34.25\ngini = 0.165\nsamples = 11\nvalue = [10, 1]"] ;
94 -> 96 ;
97 [label="gini = 0.198\nsamples = 9\nvalue = [8, 1]"] ;
96 -> 97 ;
98 [label="gini = 0.0\nsamples = 2\nvalue = [2, 0]"] ;
96 -> 98 ;
99 [label="sex <= 35.5\ngini = 0.287\nsamples = 46\nvalue = [38, 8]"] ;
93 -> 99 ;
100 [label="gini = 0.375\nsamples = 8\nvalue = [6, 2]"] ;
99 -> 100 ;
101 [label="sex <= 36.75\ngini = 0.266\nsamples = 38\nvalue = [32, 6]"] ;
99 -> 101 ;
102 [label="sex <= 36.25\ngini = 0.219\nsamples = 16\nvalue = [14, 2]"] ;
101 -> 102 ;
103 [label="gini = 0.231\nsamples = 15\nvalue = [13, 2]"] ;
102 -> 103 ;
104 [label="gini = 0.0\nsamples = 1\nvalue = [1, 0]"] ;
102 -> 104 ;
105 [label="sex <= 37.5\ngini = 0.298\nsamples = 22\nvalue = [18, 4]"] ;
101 -> 105 ;
106 [label="gini = 0.278\nsamples = 6\nvalue = [5, 1]"] ;
105 -> 106 ;
107 [label="sex <= 38.5\ngini = 0.305\nsamples = 16\nvalue = [13, 3]"] ;
105 -> 107 ;
108 [label="gini = 0.32\nsamples = 5\nvalue = [4, 1]"] ;
107 -> 108 ;
109 [label="gini = 0.298\nsamples = 11\nvalue = [9, 2]"] ;
107 -> 109 ;
110 [label="sex <= 41.5\ngini = 0.095\nsamples = 40\nvalue = [38, 2]"] ;
92 -> 110 ;
111 [label="gini = 0.0\nsamples = 18\nvalue = [18, 0]"] ;
110 -> 111 ;
112 [label="sex <= 42.5\ngini = 0.165\nsamples = 22\nvalue = [20, 2]"] ;
110 -> 112 ;
113 [label="gini = 0.298\nsamples = 11\nvalue = [9, 2]"] ;
112 -> 113 ;
114 [label="gini = 0.0\nsamples = 11\nvalue = [11, 0]"] ;
112 -> 114 ;
115 [label="gini = 0.444\nsamples = 6\nvalue = [4, 2]"] ;
91 -> 115 ;
116 [label="gini = 0.0\nsamples = 16\nvalue = [16, 0]"] ;
90 -> 116 ;
117 [label="sex <= 49.5\ngini = 0.353\nsamples = 48\nvalue = [37, 11]"] ;
89 -> 117 ;
118 [label="sex <= 48.5\ngini = 0.497\nsamples = 13\nvalue = [7, 6]"] ;
117 -> 118 ;
119 [label="gini = 0.5\nsamples = 6\nvalue = [3, 3]"] ;
118 -> 119 ;
120 [label="gini = 0.49\nsamples = 7\nvalue = [4, 3]"] ;
118 -> 120 ;
121 [label="sex <= 50.5\ngini = 0.245\nsamples = 35\nvalue = [30, 5]"] ;
117 -> 121 ;
122 [label="gini = 0.0\nsamples = 6\nvalue = [6, 0]"] ;
121 -> 122 ;
123 [label="sex <= 59.5\ngini = 0.285\nsamples = 29\nvalue = [24, 5]"] ;
121 -> 123 ;
124 [label="sex <= 56.5\ngini = 0.26\nsamples = 26\nvalue = [22, 4]"] ;
123 -> 124 ;
125 [label="sex <= 55.5\ngini = 0.332\nsamples = 19\nvalue = [15, 4]"] ;
124 -> 125 ;
126 [label="sex <= 54.5\ngini = 0.305\nsamples = 16\nvalue = [13, 3]"] ;
125 -> 126 ;
127 [label="sex <= 52.5\ngini = 0.355\nsamples = 13\nvalue = [10, 3]"] ;
126 -> 127 ;
128 [label="sex <= 51.5\ngini = 0.245\nsamples = 7\nvalue = [6, 1]"] ;
127 -> 128 ;
129 [label="gini = 0.32\nsamples = 5\nvalue = [4, 1]"] ;
128 -> 129 ;
130 [label="gini = 0.0\nsamples = 2\nvalue = [2, 0]"] ;
128 -> 130 ;
131 [label="sex <= 53.5\ngini = 0.444\nsamples = 6\nvalue = [4, 2]"] ;
127 -> 131 ;
132 [label="gini = 0.0\nsamples = 1\nvalue = [0, 1]"] ;
131 -> 132 ;
133 [label="gini = 0.32\nsamples = 5\nvalue = [4, 1]"] ;
131 -> 133 ;
134 [label="gini = 0.0\nsamples = 3\nvalue = [3, 0]"] ;
126 -> 134 ;
135 [label="gini = 0.444\nsamples = 3\nvalue = [2, 1]"] ;
125 -> 135 ;
136 [label="gini = 0.0\nsamples = 7\nvalue = [7, 0]"] ;
124 -> 136 ;
137 [label="gini = 0.444\nsamples = 3\nvalue = [2, 1]"] ;
123 -> 137 ;
138 [label="gini = 0.0\nsamples = 19\nvalue = [19, 0]"] ;
88 -> 138 ;
139 [label="gini = 0.0\nsamples = 1\nvalue = [0, 1]"] ;
33 -> 139 ;
140 [label="sex <= 11.5\ngini = 0.364\nsamples = 313\nvalue = [75, 238]"] ;
0 -> 140 [labeldistance=2.5, labelangle=-45, headlabel="False"] ;
141 [label="sex <= 8.5\ngini = 0.499\nsamples = 31\nvalue = [15, 16]"] ;
140 -> 141 ;
142 [label="sex <= 3.5\ngini = 0.454\nsamples = 23\nvalue = [8, 15]"] ;
141 -> 142 ;
143 [label="sex <= 1.5\ngini = 0.497\nsamples = 13\nvalue = [6, 7]"] ;
142 -> 143 ;
144 [label="sex <= 0.875\ngini = 0.32\nsamples = 5\nvalue = [1, 4]"] ;
143 -> 144 ;
145 [label="gini = 0.0\nsamples = 2\nvalue = [0, 2]"] ;
144 -> 145 ;
146 [label="gini = 0.444\nsamples = 3\nvalue = [1, 2]"] ;
144 -> 146 ;
147 [label="sex <= 2.5\ngini = 0.469\nsamples = 8\nvalue = [5, 3]"] ;
143 -> 147 ;
148 [label="gini = 0.48\nsamples = 5\nvalue = [3, 2]"] ;
147 -> 148 ;
149 [label="gini = 0.444\nsamples = 3\nvalue = [2, 1]"] ;
147 -> 149 ;
150 [label="sex <= 5.5\ngini = 0.32\nsamples = 10\nvalue = [2, 8]"] ;
142 -> 150 ;
151 [label="gini = 0.0\nsamples = 5\nvalue = [0, 5]"] ;
150 -> 151 ;
152 [label="sex <= 7.0\ngini = 0.48\nsamples = 5\nvalue = [2, 3]"] ;
150 -> 152 ;
153 [label="gini = 0.5\nsamples = 2\nvalue = [1, 1]"] ;
152 -> 153 ;
154 [label="gini = 0.444\nsamples = 3\nvalue = [1, 2]"] ;
152 -> 154 ;
155 [label="sex <= 9.5\ngini = 0.219\nsamples = 8\nvalue = [7, 1]"] ;
141 -> 155 ;
156 [label="gini = 0.32\nsamples = 5\nvalue = [4, 1]"] ;
155 -> 156 ;
157 [label="gini = 0.0\nsamples = 3\nvalue = [3, 0]"] ;
155 -> 157 ;
158 [label="sex <= 46.0\ngini = 0.335\nsamples = 282\nvalue = [60, 222]"] ;
140 -> 158 ;
159 [label="sex <= 16.5\ngini = 0.36\nsamples = 242\nvalue = [57, 185]"] ;
158 -> 159 ;
160 [label="sex <= 14.25\ngini = 0.18\nsamples = 20\nvalue = [2, 18]"] ;
159 -> 160 ;
161 [label="gini = 0.0\nsamples = 7\nvalue = [0, 7]"] ;
160 -> 161 ;
162 [label="sex <= 14.75\ngini = 0.26\nsamples = 13\nvalue = [2, 11]"] ;
160 -> 162 ;
163 [label="gini = 0.0\nsamples = 1\nvalue = [1, 0]"] ;
162 -> 163 ;
164 [label="sex <= 15.5\ngini = 0.153\nsamples = 12\nvalue = [1, 11]"] ;
162 -> 164 ;
165 [label="gini = 0.0\nsamples = 4\nvalue = [0, 4]"] ;
164 -> 165 ;
166 [label="gini = 0.219\nsamples = 8\nvalue = [1, 7]"] ;
164 -> 166 ;
167 [label="sex <= 30.75\ngini = 0.373\nsamples = 222\nvalue = [55, 167]"] ;
159 -> 167 ;
168 [label="sex <= 30.25\ngini = 0.404\nsamples = 139\nvalue = [39, 100]"] ;
167 -> 168 ;
169 [label="sex <= 24.5\ngini = 0.399\nsamples = 138\nvalue = [38, 100]"] ;
168 -> 169 ;
170 [label="sex <= 21.5\ngini = 0.366\nsamples = 83\nvalue = [20, 63]"] ;
169 -> 170 ;
171 [label="sex <= 19.5\ngini = 0.439\nsamples = 43\nvalue = [14, 29]"] ;
170 -> 171 ;
172 [label="sex <= 18.5\ngini = 0.404\nsamples = 32\nvalue = [9, 23]"] ;
171 -> 172 ;
173 [label="sex <= 17.5\ngini = 0.444\nsamples = 24\nvalue = [8, 16]"] ;
172 -> 173 ;
174 [label="gini = 0.32\nsamples = 5\nvalue = [1, 4]"] ;
173 -> 174 ;
175 [label="gini = 0.465\nsamples = 19\nvalue = [7, 12]"] ;
173 -> 175 ;
176 [label="gini = 0.219\nsamples = 8\nvalue = [1, 7]"] ;
172 -> 176 ;
177 [label="sex <= 20.5\ngini = 0.496\nsamples = 11\nvalue = [5, 6]"] ;
171 -> 177 ;
178 [label="gini = 0.5\nsamples = 4\nvalue = [2, 2]"] ;
177 -> 178 ;
179 [label="gini = 0.49\nsamples = 7\nvalue = [3, 4]"] ;
177 -> 179 ;
180 [label="sex <= 22.5\ngini = 0.255\nsamples = 40\nvalue = [6, 34]"] ;
170 -> 180 ;
181 [label="gini = 0.278\nsamples = 18\nvalue = [3, 15]"] ;
180 -> 181 ;
182 [label="sex <= 23.5\ngini = 0.236\nsamples = 22\nvalue = [3, 19]"] ;
180 -> 182 ;
183 [label="gini = 0.245\nsamples = 7\nvalue = [1, 6]"] ;
182 -> 183 ;
184 [label="gini = 0.231\nsamples = 15\nvalue = [2, 13]"] ;
182 -> 184 ;
185 [label="sex <= 25.5\ngini = 0.44\nsamples = 55\nvalue = [18, 37]"] ;
169 -> 185 ;
186 [label="gini = 0.375\nsamples = 4\nvalue = [3, 1]"] ;
185 -> 186 ;
187 [label="sex <= 28.5\ngini = 0.415\nsamples = 51\nvalue = [15, 36]"] ;
185 -> 187 ;
188 [label="sex <= 26.5\ngini = 0.444\nsamples = 24\nvalue = [8, 16]"] ;
187 -> 188 ;
189 [label="gini = 0.469\nsamples = 8\nvalue = [3, 5]"] ;
188 -> 189 ;
190 [label="sex <= 27.5\ngini = 0.43\nsamples = 16\nvalue = [5, 11]"] ;
188 -> 190 ;
191 [label="gini = 0.408\nsamples = 7\nvalue = [2, 5]"] ;
190 -> 191 ;
192 [label="gini = 0.444\nsamples = 9\nvalue = [3, 6]"] ;
190 -> 192 ;
193 [label="sex <= 29.5\ngini = 0.384\nsamples = 27\nvalue = [7, 20]"] ;
187 -> 193 ;
194 [label="gini = 0.32\nsamples = 10\nvalue = [2, 8]"] ;
193 -> 194 ;
195 [label="gini = 0.415\nsamples = 17\nvalue = [5, 12]"] ;
193 -> 195 ;
196 [label="gini = 0.0\nsamples = 1\nvalue = [1, 0]"] ;
168 -> 196 ;
197 [label="sex <= 35.5\ngini = 0.311\nsamples = 83\nvalue = [16, 67]"] ;
167 -> 197 ;
198 [label="sex <= 32.25\ngini = 0.213\nsamples = 33\nvalue = [4, 29]"] ;
197 -> 198 ;
199 [label="sex <= 31.5\ngini = 0.355\nsamples = 13\nvalue = [3, 10]"] ;
198 -> 199 ;
200 [label="gini = 0.32\nsamples = 10\nvalue = [2, 8]"] ;
199 -> 200 ;
201 [label="gini = 0.444\nsamples = 3\nvalue = [1, 2]"] ;
199 -> 201 ;
202 [label="sex <= 34.5\ngini = 0.095\nsamples = 20\nvalue = [1, 19]"] ;
198 -> 202 ;
203 [label="gini = 0.0\nsamples = 13\nvalue = [0, 13]"] ;
202 -> 203 ;
204 [label="gini = 0.245\nsamples = 7\nvalue = [1, 6]"] ;
202 -> 204 ;
205 [label="sex <= 37.5\ngini = 0.365\nsamples = 50\nvalue = [12, 38]"] ;
197 -> 205 ;
206 [label="sex <= 36.5\ngini = 0.444\nsamples = 12\nvalue = [4, 8]"] ;
205 -> 206 ;
207 [label="gini = 0.346\nsamples = 9\nvalue = [2, 7]"] ;
206 -> 207 ;
208 [label="gini = 0.444\nsamples = 3\nvalue = [2, 1]"] ;
206 -> 208 ;
209 [label="sex <= 43.5\ngini = 0.332\nsamples = 38\nvalue = [8, 30]"] ;
205 -> 209 ;
210 [label="sex <= 41.5\ngini = 0.298\nsamples = 22\nvalue = [4, 18]"] ;
209 -> 210 ;
211 [label="sex <= 40.5\ngini = 0.332\nsamples = 19\nvalue = [4, 15]"] ;
210 -> 211 ;
212 [label="sex <= 38.5\ngini = 0.305\nsamples = 16\nvalue = [3, 13]"] ;
211 -> 212 ;
213 [label="gini = 0.32\nsamples = 5\nvalue = [1, 4]"] ;
212 -> 213 ;
214 [label="sex <= 39.5\ngini = 0.298\nsamples = 11\nvalue = [2, 9]"] ;
212 -> 214 ;
215 [label="gini = 0.278\nsamples = 6\nvalue = [1, 5]"] ;
214 -> 215 ;
216 [label="gini = 0.32\nsamples = 5\nvalue = [1, 4]"] ;
214 -> 216 ;
217 [label="gini = 0.444\nsamples = 3\nvalue = [1, 2]"] ;
211 -> 217 ;
218 [label="gini = 0.0\nsamples = 3\nvalue = [0, 3]"] ;
210 -> 218 ;
219 [label="sex <= 44.5\ngini = 0.375\nsamples = 16\nvalue = [4, 12]"] ;
209 -> 219 ;
220 [label="gini = 0.444\nsamples = 3\nvalue = [1, 2]"] ;
219 -> 220 ;
221 [label="gini = 0.355\nsamples = 13\nvalue = [3, 10]"] ;
219 -> 221 ;
222 [label="sex <= 56.5\ngini = 0.139\nsamples = 40\nvalue = [3, 37]"] ;
158 -> 222 ;
223 [label="sex <= 50.5\ngini = 0.077\nsamples = 25\nvalue = [1, 24]"] ;
222 -> 223 ;
224 [label="sex <= 49.5\ngini = 0.133\nsamples = 14\nvalue = [1, 13]"] ;
223 -> 224 ;
225 [label="gini = 0.0\nsamples = 8\nvalue = [0, 8]"] ;
224 -> 225 ;
226 [label="gini = 0.278\nsamples = 6\nvalue = [1, 5]"] ;
224 -> 226 ;
227 [label="gini = 0.0\nsamples = 11\nvalue = [0, 11]"] ;
223 -> 227 ;
228 [label="sex <= 57.5\ngini = 0.231\nsamples = 15\nvalue = [2, 13]"] ;
222 -> 228 ;
229 [label="gini = 0.0\nsamples = 1\nvalue = [1, 0]"] ;
228 -> 229 ;
230 [label="sex <= 61.0\ngini = 0.133\nsamples = 14\nvalue = [1, 13]"] ;
228 -> 230 ;
231 [label="sex <= 59.5\ngini = 0.219\nsamples = 8\nvalue = [1, 7]"] ;
230 -> 231 ;
232 [label="gini = 0.0\nsamples = 4\nvalue = [0, 4]"] ;
231 -> 232 ;
233 [label="gini = 0.375\nsamples = 4\nvalue = [1, 3]"] ;
231 -> 233 ;
234 [label="gini = 0.0\nsamples = 6\nvalue = [0, 6]"] ;
230 -> 234 ;
}